digraph Tree {
node [shape=box, style="filled", color="black", fontname="helvetica"] ;
edge [fontname="helvetica"] ;
0 [label="odor_none <= 0.5\ngini = 0.499\nsamples = 6093\nvalue = [3156, 2937]\nclass = enable", fillcolor="#fdf6f1"] ;
1 [label="stalk_root_club <= 0.5\ngini = 0.285\nsamples = 3453\nvalue = [595, 2858]\nclass = poison", fillcolor="#62b1ea"] ;
0 -> 1 [labeldistance=2.5, labelangle=45, headlabel="True"] ;
2 [label="stalk_root_rooted <= 0.5\ngini = 0.132\nsamples = 3050\nvalue = [216, 2834]\nclass = poison", fillcolor="#48a4e7"] ;
1 -> 2 ;
3 [label="odor_almond <= 0.5\ngini = 0.045\nsamples = 2901\nvalue = [67, 2834]\nclass = poison", fillcolor="#3e9fe6"] ;
2 -> 3 ;
4 [label="odor_anise <= 0.5\ngini = 0.021\nsamples = 2865\nvalue = [31, 2834]\nclass = poison", fillcolor="#3b9ee5"] ;
3 -> 4 ;
5 [label="gini = 0.0\nsamples = 2834\nvalue = [0, 2834]\nclass = poison", fillcolor="#399de5"] ;
4 -> 5 ;
6 [label="gini = 0.0\nsamples = 31\nvalue = [31, 0]\nclass = enable", fillcolor="#e58139"] ;
4 -> 6 ;
7 [label="gini = 0.0\nsamples = 36\nvalue = [36, 0]\nclass = enable", fillcolor="#e58139"] ;
3 -> 7 ;
8 [label="gini = 0.0\nsamples = 149\nvalue = [149, 0]\nclass = enable", fillcolor="#e58139"] ;
2 -> 8 ;
9 [label="ring_type_none <= 0.5\ngini = 0.112\nsamples = 403\nvalue = [379, 24]\nclass = enable", fillcolor="#e78946"] ;
1 -> 9 ;
10 [label="gini = 0.0\nsamples = 379\nvalue = [379, 0]\nclass = enable", fillcolor="#e58139"] ;
9 -> 10 ;
11 [label="gini = 0.0\nsamples = 24\nvalue = [0, 24]\nclass = poison", fillcolor="#399de5"] ;
9 -> 11 ;
12 [label="spore_print_color_green <= 0.5\ngini = 0.058\nsamples = 2640\nvalue = [2561, 79]\nclass = enable", fillcolor="#e6853f"] ;
0 -> 12 [labeldistance=2.5, labelangle=-45, headlabel="False"] ;
13 [label="stalk_surface_below_ring_scaly <= 0.5\ngini = 0.026\nsamples = 2595\nvalue = [2561, 34]\nclass = enable", fillcolor="#e5833c"] ;
12 -> 13 ;
14 [label="cap_surface_grooves <= 0.5\ngini = 0.004\nsamples = 2555\nvalue = [2550, 5]\nclass = enable", fillcolor="#e58139"] ;
13 -> 14 ;
15 [label="gill_size_narrow <= 0.5\ngini = 0.002\nsamples = 2552\nvalue = [2550, 2]\nclass = enable", fillcolor="#e58139"] ;
14 -> 15 ;
16 [label="gini = 0.0\nsamples = 2401\nvalue = [2401, 0]\nclass = enable", fillcolor="#e58139"] ;
15 -> 16 ;
17 [label="population_clustered <= 0.5\ngini = 0.026\nsamples = 151\nvalue = [149, 2]\nclass = enable", fillcolor="#e5833c"] ;
15 -> 17 ;
18 [label="gini = 0.0\nsamples = 149\nvalue = [149, 0]\nclass = enable", fillcolor="#e58139"] ;
17 -> 18 ;
19 [label="gini = 0.0\nsamples = 2\nvalue = [0, 2]\nclass = poison", fillcolor="#399de5"] ;
17 -> 19 ;
20 [label="gini = 0.0\nsamples = 3\nvalue = [0, 3]\nclass = poison", fillcolor="#399de5"] ;
14 -> 20 ;
21 [label="stalk_color_above_ring_brown <= 0.5\ngini = 0.399\nsamples = 40\nvalue = [11, 29]\nclass = poison", fillcolor="#84c2ef"] ;
13 -> 21 ;
22 [label="gini = 0.0\nsamples = 29\nvalue = [0, 29]\nclass = poison", fillcolor="#399de5"] ;
21 -> 22 ;
23 [label="gini = 0.0\nsamples = 11\nvalue = [11, 0]\nclass = enable", fillcolor="#e58139"] ;
21 -> 23 ;
24 [label="gini = 0.0\nsamples = 45\nvalue = [0, 45]\nclass = poison", fillcolor="#399de5"] ;
12 -> 24 ;
}